<?xml version="1.0"?>
<opencv_storage>
<stage0>
  <maxWeakCount>8</maxWeakCount>
  <stageThreshold>-7.9896140098571777e-01</stageThreshold>
  <weakClassifiers>
    <_>
      <internalNodes>
        0 -1 84176 1.3304930180311203e-02</internalNodes>
      <leafValues>
        -6.4612674713134766e-01 8.4953701496124268e-01</leafValues></_>
    <_>
      <internalNodes>
        0 -1 61276 3.6749520804733038e-03</internalNodes>
      <leafValues>
        -5.7759565114974976e-01 9.4527840614318848e-01</leafValues></_>
    <_>
      <internalNodes>
        0 -1 9444 1.5321468934416771e-02</internalNodes>
      <leafValues>
        -9.1653329133987427e-01 5.8568125963211060e-01</leafValues></_>
    <_>
      <internalNodes>
        0 -1 69940 -1.9266430288553238e-02</internalNodes>
      <leafValues>
        7.1508431434631348e-01 -6.6911554336547852e-01</leafValues></_>
    <_>
      <internalNodes>
        0 -1 86239 -5.8580534532666206e-03</internalNodes>
      <leafValues>
        9.8082661628723145e-01 -4.6702453494071960e-01</leafValues></_>
    <_>
      <internalNodes>
        0 -1 79235 -1.1549244634807110e-02</internalNodes>
      <leafValues>
        9.6947753429412842e-01 -4.6585512161254883e-01</leafValues></_>
    <_>
      <internalNodes>
        0 -1 424 1.4617955312132835e-02</internalNodes>
      <leafValues>
        -8.6355370283126831e-01 5.8464938402175903e-01</leafValues></_>
    <_>
      <internalNodes>
        0 -1 53719 -2.5858778506517410e-02</internalNodes>
      <leafValues>
        9.8889231681823730e-01 -4.6089237928390503e-01</leafValues></_></weakClassifiers></stage0>
</opencv_storage>
