<?xml version="1.0"?>
<opencv_storage>
<stage1>
  <maxWeakCount>6</maxWeakCount>
  <stageThreshold>-5.6599986553192139e-01</stageThreshold>
  <weakClassifiers>
    <_>
      <internalNodes>
        0 -1 68325 4.7355880960822105e-03</internalNodes>
      <leafValues>
        -5.5282557010650635e-01 8.6649549007415771e-01</leafValues></_>
    <_>
      <internalNodes>
        0 -1 108163 3.8980189710855484e-03</internalNodes>
      <leafValues>
        -5.0822216272354126e-01 9.0569186210632324e-01</leafValues></_>
    <_>
      <internalNodes>
        0 -1 99073 -1.9853815436363220e-02</internalNodes>
      <leafValues>
        9.4368332624435425e-01 -3.9351916313171387e-01</leafValues></_>
    <_>
      <internalNodes>
        0 -1 124810 -2.4397528250119649e-05</internalNodes>
      <leafValues>
        -1. 4.9330303072929382e-01</leafValues></_>
    <_>
      <internalNodes>
        0 -1 108502 -6.1002904549241066e-03</internalNodes>
      <leafValues>
        9.4779688119888306e-01 -4.6105527877807617e-01</leafValues></_>
    <_>
      <internalNodes>
        0 -1 116031 -5.1123708486557007e-02</internalNodes>
      <leafValues>
        9.8719495534896851e-01 -4.8088318109512329e-01</leafValues></_></weakClassifiers></stage1>
</opencv_storage>
