<?xml version="1.0"?>
<opencv_storage>
<stage2>
  <maxWeakCount>10</maxWeakCount>
  <stageThreshold>-8.1977385282516479e-01</stageThreshold>
  <weakClassifiers>
    <_>
      <internalNodes>
        0 -1 124844 3.2783940696390346e-05</internalNodes>
      <leafValues>
        5.2448660135269165e-01 -9.0463215112686157e-01</leafValues></_>
    <_>
      <internalNodes>
        0 -1 44950 -2.1716048941016197e-02</internalNodes>
      <leafValues>
        8.6557668447494507e-01 -5.7921910285949707e-01</leafValues></_>
    <_>
      <internalNodes>
        0 -1 9225 -1.1809448711574078e-02</internalNodes>
      <leafValues>
        5.5606305599212646e-01 -8.5728365182876587e-01</leafValues></_>
    <_>
      <internalNodes>
        0 -1 124804 3.7557481846306473e-05</internalNodes>
      <leafValues>
        3.4141001105308533e-01 -1.</leafValues></_>
    <_>
      <internalNodes>
        0 -1 123640 -3.5815199225908145e-05</internalNodes>
      <leafValues>
        -1. 3.5193285346031189e-01</leafValues></_>
    <_>
      <internalNodes>
        0 -1 40878 -2.8750257566571236e-02</internalNodes>
      <leafValues>
        -9.2525893449783325e-01 3.5606122016906738e-01</leafValues></_>
    <_>
      <internalNodes>
        0 -1 85400 1.8191598355770111e-02</internalNodes>
      <leafValues>
        -5.7767188549041748e-01 7.3600935935974121e-01</leafValues></_>
    <_>
      <internalNodes>
        0 -1 109101 -1.2480608187615871e-02</internalNodes>
      <leafValues>
        9.9090349674224854e-01 -4.8810854554176331e-01</leafValues></_>
    <_>
      <internalNodes>
        0 -1 97299 8.9556667953729630e-03</internalNodes>
      <leafValues>
        5.9455347061157227e-01 -9.5225846767425537e-01</leafValues></_>
    <_>
      <internalNodes>
        0 -1 109186 1.1685715988278389e-02</internalNodes>
      <leafValues>
        -5.8777880668640137e-01 9.4318395853042603e-01</leafValues></_></weakClassifiers></stage2>
</opencv_storage>
