<?xml version="1.0"?>
<opencv_storage>
<cascade>
  <stageType>BOOST</stageType>
  <featureType>HAAR</featureType>
  <height>20</height>
  <width>20</width>
  <stageParams>
    <boostType>GAB</boostType>
    <minHitRate>9.9900001287460327e-01</minHitRate>
    <maxFalseAlarm>5.0000000745058060e-02</maxFalseAlarm>
    <weightTrimRate>9.4999999999999996e-01</weightTrimRate>
    <maxDepth>1</maxDepth>
    <maxWeakCount>100</maxWeakCount></stageParams>
  <featureParams>
    <maxCatCount>0</maxCatCount>
    <featSize>1</featSize>
    <mode>ALL</mode></featureParams>
  <stageNum>3</stageNum>
  <stages>
    <!-- stage 0 -->
    <_>
      <maxWeakCount>6</maxWeakCount>
      <stageThreshold>3.1816238164901733e-01</stageThreshold>
      <weakClassifiers>
        <_>
          <internalNodes>
            0 -1 16 -8.8234245777130127e-03</internalNodes>
          <leafValues>
            8.2483369112014771e-01 -6.7759561538696289e-01</leafValues></_>
        <_>
          <internalNodes>
            0 -1 4 -1.8415685190120712e-05</internalNodes>
          <leafValues>
            -1. 3.9082735776901245e-01</leafValues></_>
        <_>
          <internalNodes>
            0 -1 5 2.1476082110893913e-05</internalNodes>
          <leafValues>
            4.3653586506843567e-01 -1.</leafValues></_>
        <_>
          <internalNodes>
            0 -1 9 7.2053694166243076e-03</internalNodes>
          <leafValues>
            -5.6166821718215942e-01 7.8026342391967773e-01</leafValues></_>
        <_>
          <internalNodes>
            0 -1 21 2.0196841433062218e-05</internalNodes>
          <leafValues>
            3.6000788211822510e-01 -1.</leafValues></_>
        <_>
          <internalNodes>
            0 -1 23 -1.6839236195664853e-05</internalNodes>
          <leafValues>
            -1. 3.7005516886711121e-01</leafValues></_></weakClassifiers></_>
    <!-- stage 1 -->
    <_>
      <maxWeakCount>10</maxWeakCount>
      <stageThreshold>-6.4789301156997681e-01</stageThreshold>
      <weakClassifiers>
        <_>
          <internalNodes>
            0 -1 18 -1.2769497931003571e-02</internalNodes>
          <leafValues>
            7.4352943897247314e-01 -5.4956519603729248e-01</leafValues></_>
        <_>
          <internalNodes>
            0 -1 1 -2.6839088604901917e-05</internalNodes>
          <leafValues>
            -1. 3.6612299084663391e-01</leafValues></_>
        <_>
          <internalNodes>
            0 -1 13 -1.0575879365205765e-02</internalNodes>
          <leafValues>
            5.7469511032104492e-01 -6.2421965599060059e-01</leafValues></_>
        <_>
          <internalNodes>
            0 -1 7 -1.8623783034854569e-05</internalNodes>
          <leafValues>
            -9.2926454544067383e-01 3.8936930894851685e-01</leafValues></_>
        <_>
          <internalNodes>
            0 -1 19 -5.5785081349313259e-03</internalNodes>
          <leafValues>
            7.5725650787353516e-01 -4.9615576863288879e-01</leafValues></_>
        <_>
          <internalNodes>
            0 -1 2 -1.1749574542045593e-01</internalNodes>
          <leafValues>
            -9.7887164354324341e-01 3.5869443416595459e-01</leafValues></_>
        <_>
          <internalNodes>
            0 -1 12 -1.1232990073040128e-04</internalNodes>
          <leafValues>
            4.0201416611671448e-01 -7.9293692111968994e-01</leafValues></_>
        <_>
          <internalNodes>
            0 -1 17 1.7607921734452248e-02</internalNodes>
          <leafValues>
            -3.8967236876487732e-01 9.0006607770919800e-01</leafValues></_>
        <_>
          <internalNodes>
            0 -1 0 1.6666264855302870e-05</internalNodes>
          <leafValues>
            3.7310427427291870e-01 -1.</leafValues></_>
        <_>
          <internalNodes>
            0 -1 14 -8.1385504454374313e-03</internalNodes>
          <leafValues>
            8.0111598968505859e-01 -4.7758516669273376e-01</leafValues></_></weakClassifiers></_>
    <!-- stage 2 -->
    <_>
      <maxWeakCount>11</maxWeakCount>
      <stageThreshold>-2.2438499331474304e-01</stageThreshold>
      <weakClassifiers>
        <_>
          <internalNodes>
            0 -1 6 1.1778405308723450e-01</internalNodes>
          <leafValues>
            4.0682786703109741e-01 -9.6296298503875732e-01</leafValues></_>
        <_>
          <internalNodes>
            0 -1 22 -2.0315515939728357e-05</internalNodes>
          <leafValues>
            -8.7258768081665039e-01 3.0243012309074402e-01</leafValues></_>
        <_>
          <internalNodes>
            0 -1 20 -5.1433234475553036e-03</internalNodes>
          <leafValues>
            7.0596438646316528e-01 -4.4738459587097168e-01</leafValues></_>
        <_>
          <internalNodes>
            0 -1 25 -4.1712024540174752e-05</internalNodes>
          <leafValues>
            -1. 3.1331977248191833e-01</leafValues></_>
        <_>
          <internalNodes>
            0 -1 15 -1.1274475604295731e-02</internalNodes>
          <leafValues>
            1.9039708375930786e-01 -9.6126961708068848e-01</leafValues></_>
        <_>
          <internalNodes>
            0 -1 8 5.7421334087848663e-02</internalNodes>
          <leafValues>
            2.3895005881786346e-01 -9.4686675071716309e-01</leafValues></_>
        <_>
          <internalNodes>
            0 -1 3 -1.2975081801414490e-01</internalNodes>
          <leafValues>
            -9.9145144224166870e-01 2.8297859430313110e-01</leafValues></_>
        <_>
          <internalNodes>
            0 -1 10 6.3785523176193237e-02</internalNodes>
          <leafValues>
            2.3848220705986023e-01 -9.0999501943588257e-01</leafValues></_>
        <_>
          <internalNodes>
            0 -1 24 2.0856012270087376e-05</internalNodes>
          <leafValues>
            1.6092097759246826e-01 -1.</leafValues></_>
        <_>
          <internalNodes>
            0 -1 11 -4.7147317673079669e-04</internalNodes>
          <leafValues>
            3.8926079869270325e-01 -6.4220011234283447e-01</leafValues></_>
        <_>
          <internalNodes>
            0 -1 24 -1.6893192878342234e-05</internalNodes>
          <leafValues>
            -1. 2.1770019829273224e-01</leafValues></_></weakClassifiers></_></stages>
  <features>
    <_>
      <rects>
        <_>
          0 0 2 1 -1.</_>
        <_>
          1 0 1 1 2.</_></rects>
      <tilted>0</tilted></_>
    <_>
      <rects>
        <_>
          0 0 1 4 -1.</_>
        <_>
          0 2 1 2 2.</_></rects>
      <tilted>0</tilted></_>
    <_>
      <rects>
        <_>
          0 0 18 20 -1.</_>
        <_>
          0 10 18 10 2.</_></rects>
      <tilted>0</tilted></_>
    <_>
      <rects>
        <_>
          0 3 20 16 -1.</_>
        <_>
          10 3 10 16 2.</_></rects>
      <tilted>0</tilted></_>
    <_>
      <rects>
        <_>
          0 18 1 2 -1.</_>
        <_>
          0 19 1 1 2.</_></rects>
      <tilted>0</tilted></_>
    <_>
      <rects>
        <_>
          0 18 2 2 -1.</_>
        <_>
          0 19 2 1 2.</_></rects>
      <tilted>0</tilted></_>
    <_>
      <rects>
        <_>
          1 0 15 18 -1.</_>
        <_>
          1 9 15 9 2.</_></rects>
      <tilted>0</tilted></_>
    <_>
      <rects>
        <_>
          2 0 1 2 -1.</_>
        <_>
          2 0 1 1 2.</_></rects>
      <tilted>1</tilted></_>
    <_>
      <rects>
        <_>
          2 1 18 9 -1.</_>
        <_>
          11 1 9 9 2.</_></rects>
      <tilted>0</tilted></_>
    <_>
      <rects>
        <_>
          2 6 2 8 -1.</_>
        <_>
          3 6 1 8 2.</_></rects>
      <tilted>0</tilted></_>
    <_>
      <rects>
        <_>
          2 6 18 14 -1.</_>
        <_>
          11 6 9 14 2.</_></rects>
      <tilted>0</tilted></_>
    <_>
      <rects>
        <_>
          3 6 6 3 -1.</_>
        <_>
          5 7 2 1 9.</_></rects>
      <tilted>0</tilted></_>
    <_>
      <rects>
        <_>
          3 8 14 12 -1.</_>
        <_>
          3 14 14 6 2.</_></rects>
      <tilted>0</tilted></_>
    <_>
      <rects>
        <_>
          3 9 6 3 -1.</_>
        <_>
          5 10 2 1 9.</_></rects>
      <tilted>0</tilted></_>
    <_>
      <rects>
        <_>
          6 8 3 3 -1.</_>
        <_>
          7 9 1 1 9.</_></rects>
      <tilted>0</tilted></_>
    <_>
      <rects>
        <_>
          7 7 6 6 -1.</_>
        <_>
          9 9 2 2 9.</_></rects>
      <tilted>0</tilted></_>
    <_>
      <rects>
        <_>
          7 9 6 2 -1.</_>
        <_>
          9 9 2 2 3.</_></rects>
      <tilted>0</tilted></_>
    <_>
      <rects>
        <_>
          11 8 3 5 -1.</_>
        <_>
          12 9 1 5 3.</_></rects>
      <tilted>1</tilted></_>
    <_>
      <rects>
        <_>
          11 9 6 3 -1.</_>
        <_>
          13 10 2 1 9.</_></rects>
      <tilted>0</tilted></_>
    <_>
      <rects>
        <_>
          14 8 3 4 -1.</_>
        <_>
          15 8 1 4 3.</_></rects>
      <tilted>0</tilted></_>
    <_>
      <rects>
        <_>
          16 0 2 12 -1.</_>
        <_>
          16 0 1 6 2.</_>
        <_>
          17 6 1 6 2.</_></rects>
      <tilted>0</tilted></_>
    <_>
      <rects>
        <_>
          16 0 4 1 -1.</_>
        <_>
          18 0 2 1 2.</_></rects>
      <tilted>0</tilted></_>
    <_>
      <rects>
        <_>
          17 0 3 1 -1.</_>
        <_>
          18 0 1 1 3.</_></rects>
      <tilted>0</tilted></_>
    <_>
      <rects>
        <_>
          18 0 2 1 -1.</_>
        <_>
          19 0 1 1 2.</_></rects>
      <tilted>0</tilted></_>
    <_>
      <rects>
        <_>
          19 0 1 2 -1.</_>
        <_>
          19 1 1 1 2.</_></rects>
      <tilted>0</tilted></_>
    <_>
      <rects>
        <_>
          19 0 1 4 -1.</_>
        <_>
          19 2 1 2 2.</_></rects>
      <tilted>0</tilted></_></features></cascade>
</opencv_storage>
