<?xml version="1.0"?>
<opencv_storage>
<stage0>
  <maxWeakCount>6</maxWeakCount>
  <stageThreshold>3.1816238164901733e-01</stageThreshold>
  <weakClassifiers>
    <_>
      <internalNodes>
        0 -1 69949 -8.8234245777130127e-03</internalNodes>
      <leafValues>
        8.2483369112014771e-01 -6.7759561538696289e-01</leafValues></_>
    <_>
      <internalNodes>
        0 -1 9856 -1.8415685190120712e-05</internalNodes>
      <leafValues>
        -1. 3.9082735776901245e-01</leafValues></_>
    <_>
      <internalNodes>
        0 -1 9864 2.1476082110893913e-05</internalNodes>
      <leafValues>
        4.3653586506843567e-01 -1.</leafValues></_>
    <_>
      <internalNodes>
        0 -1 24293 7.2053694166243076e-03</internalNodes>
      <leafValues>
        -5.6166821718215942e-01 7.8026342391967773e-01</leafValues></_>
    <_>
      <internalNodes>
        0 -1 118529 2.0196841433062218e-05</internalNodes>
      <leafValues>
        3.6000788211822510e-01 -1.</leafValues></_>
    <_>
      <internalNodes>
        0 -1 123552 -1.6839236195664853e-05</internalNodes>
      <leafValues>
        -1. 3.7005516886711121e-01</leafValues></_></weakClassifiers></stage0>
</opencv_storage>
