<?xml version="1.0"?>
<opencv_storage>
<stage1>
  <maxWeakCount>10</maxWeakCount>
  <stageThreshold>-6.4789301156997681e-01</stageThreshold>
  <weakClassifiers>
    <_>
      <internalNodes>
        0 -1 98303 -1.2769497931003571e-02</internalNodes>
      <leafValues>
        7.4352943897247314e-01 -5.4956519603729248e-01</leafValues></_>
    <_>
      <internalNodes>
        0 -1 9 -2.6839088604901917e-05</internalNodes>
      <leafValues>
        -1. 3.6612299084663391e-01</leafValues></_>
    <_>
      <internalNodes>
        0 -1 35330 -1.0575879365205765e-02</internalNodes>
      <leafValues>
        5.7469511032104492e-01 -6.2421965599060059e-01</leafValues></_>
    <_>
      <internalNodes>
        0 -1 19364 -1.8623783034854569e-05</internalNodes>
      <leafValues>
        -9.2926454544067383e-01 3.8936930894851685e-01</leafValues></_>
    <_>
      <internalNodes>
        0 -1 113464 -5.5785081349313259e-03</internalNodes>
      <leafValues>
        7.5725650787353516e-01 -4.9615576863288879e-01</leafValues></_>
    <_>
      <internalNodes>
        0 -1 933 -1.1749574542045593e-01</internalNodes>
      <leafValues>
        -9.7887164354324341e-01 3.5869443416595459e-01</leafValues></_>
    <_>
      <internalNodes>
        0 -1 35221 -1.1232990073040128e-04</internalNodes>
      <leafValues>
        4.0201416611671448e-01 -7.9293692111968994e-01</leafValues></_>
    <_>
      <internalNodes>
        0 -1 97892 1.7607921734452248e-02</internalNodes>
      <leafValues>
        -3.8967236876487732e-01 9.0006607770919800e-01</leafValues></_>
    <_>
      <internalNodes>
        0 -1 0 1.6666264855302870e-05</internalNodes>
      <leafValues>
        3.7310427427291870e-01 -1.</leafValues></_>
    <_>
      <internalNodes>
        0 -1 61281 -8.1385504454374313e-03</internalNodes>
      <leafValues>
        8.0111598968505859e-01 -4.7758516669273376e-01</leafValues></_></weakClassifiers></stage1>
</opencv_storage>
